<?xml version="1.0"?>
<opencv_storage>
<stage0>
  <maxWeakCount>7</maxWeakCount>
  <stageThreshold>-2.1666698455810547e+00</stageThreshold>
  <weakClassifiers>
    <_>
      <internalNodes>
        0 -1 87466 8.3237309008836746e-03</internalNodes>
      <leafValues>
        -8.5839378833770752e-01 7.1442836523056030e-01</leafValues></_>
    <_>
      <internalNodes>
        0 -1 103667 3.8480688817799091e-03</internalNodes>
      <leafValues>
        -7.4470424652099609e-01 5.0382852554321289e-01</leafValues></_>
    <_>
      <internalNodes>
        0 -1 137673 -4.0020588785409927e-02</internalNodes>
      <leafValues>
        -8.5684043169021606e-01 4.0595135092735291e-01</leafValues></_>
    <_>
      <internalNodes>
        0 -1 504 5.2146680653095245e-02</internalNodes>
      <leafValues>
        -4.5158609747886658e-01 6.9940900802612305e-01</leafValues></_>
    <_>
      <internalNodes>
        0 -1 118694 -1.6581953968852758e-03</internalNodes>
      <leafValues>
        4.7136005759239197e-01 -5.9800225496292114e-01</leafValues></_>
    <_>
      <internalNodes>
        0 -1 78556 1.7201625742018223e-03</internalNodes>
      <leafValues>
        -5.9083241224288940e-01 4.2270007729530334e-01</leafValues></_>
    <_>
      <internalNodes>
        0 -1 135970 -4.1701778769493103e-02</internalNodes>
      <leafValues>
        6.9546681642532349e-01 -3.4263479709625244e-01</leafValues></_></weakClassifiers></stage0>
</opencv_storage>
